<?xml version="1.0"?>
<opencv_storage>
<cascade>
  <stageType>BOOST</stageType>
  <featureType>HAAR</featureType>
  <height>50</height>
  <width>50</width>
  <stageParams>
    <boostType>GAB</boostType>
    <minHitRate>9.9500000476837158e-01</minHitRate>
    <maxFalseAlarm>5.0000000000000000e-01</maxFalseAlarm>
    <weightTrimRate>9.4999999999999996e-01</weightTrimRate>
    <maxDepth>1</maxDepth>
    <maxWeakCount>100</maxWeakCount></stageParams>
  <featureParams>
    <maxCatCount>0</maxCatCount>
    <featSize>1</featSize>
    <mode>BASIC</mode></featureParams>
  <stageNum>7</stageNum>
  <stages>
    <!-- stage 0 -->
    <_>
      <maxWeakCount>3</maxWeakCount>
      <stageThreshold>1.0941090993583202e-02</stageThreshold>
      <weakClassifiers>
        <_>
          <internalNodes>
            0 -1 0 -7.4215661734342575e-03</internalNodes>
          <leafValues>
            9.5031058788299561e-01 -3.8129496574401855e-01</leafValues></_>
        <_>
          <internalNodes>
            0 -1 12 -4.2431866750121117e-03</internalNodes>
          <leafValues>
            8.9291191101074219e-01 -4.4467633962631226e-01</leafValues></_>
        <_>
          <internalNodes>
            0 -1 23 1.8912566592916846e-03</internalNodes>
          <leafValues>
            -4.8869818449020386e-01 8.3691239356994629e-01</leafValues></_></weakClassifiers></_>
    <!-- stage 1 -->
    <_>
      <maxWeakCount>5</maxWeakCount>
      <stageThreshold>-2.6356351375579834e-01</stageThreshold>
      <weakClassifiers>
        <_>
          <internalNodes>
            0 -1 4 5.2115850150585175e-02</internalNodes>
          <leafValues>
            6.2396693229675293e-01 -8.7931036949157715e-01</leafValues></_>
        <_>
          <internalNodes>
            0 -1 26 -4.1384873911738396e-03</internalNodes>
          <leafValues>
            8.6158144474029541e-01 -5.1142662763595581e-01</leafValues></_>
        <_>
          <internalNodes>
            0 -1 24 1.9537560641765594e-02</internalNodes>
          <leafValues>
            -5.0484877824783325e-01 6.5651917457580566e-01</leafValues></_>
        <_>
          <internalNodes>
            0 -1 7 -6.7373970523476601e-03</internalNodes>
          <leafValues>
            7.3525452613830566e-01 -4.6985420584678650e-01</leafValues></_>
        <_>
          <internalNodes>
            0 -1 11 -4.4501293450593948e-03</internalNodes>
          <leafValues>
            7.1987479925155640e-01 -5.6276881694793701e-01</leafValues></_></weakClassifiers></_>
    <!-- stage 2 -->
    <_>
      <maxWeakCount>2</maxWeakCount>
      <stageThreshold>-1.7986682057380676e-01</stageThreshold>
      <weakClassifiers>
        <_>
          <internalNodes>
            0 -1 3 -5.8676522225141525e-02</internalNodes>
          <leafValues>
            -9.6969699859619141e-01 7.0085471868515015e-01</leafValues></_>
        <_>
          <internalNodes>
            0 -1 2 -6.3512027263641357e-03</internalNodes>
          <leafValues>
            7.8983014822006226e-01 -4.0663099288940430e-01</leafValues></_></weakClassifiers></_>
    <!-- stage 3 -->
    <_>
      <maxWeakCount>4</maxWeakCount>
      <stageThreshold>-2.4056594073772430e-01</stageThreshold>
      <weakClassifiers>
        <_>
          <internalNodes>
            0 -1 20 -1.9311315554659814e-05</internalNodes>
          <leafValues>
            -8.2142859697341919e-01 5.9836065769195557e-01</leafValues></_>
        <_>
          <internalNodes>
            0 -1 22 2.1569201635429636e-05</internalNodes>
          <leafValues>
            4.7994539141654968e-01 -8.0239975452423096e-01</leafValues></_>
        <_>
          <internalNodes>
            0 -1 6 -6.1502540484070778e-03</internalNodes>
          <leafValues>
            7.1379512548446655e-01 -4.7306367754936218e-01</leafValues></_>
        <_>
          <internalNodes>
            0 -1 8 -9.0595753863453865e-03</internalNodes>
          <leafValues>
            5.3220480680465698e-01 -6.1287790536880493e-01</leafValues></_></weakClassifiers></_>
    <!-- stage 4 -->
    <_>
      <maxWeakCount>4</maxWeakCount>
      <stageThreshold>-4.1831579804420471e-01</stageThreshold>
      <weakClassifiers>
        <_>
          <internalNodes>
            0 -1 5 7.4943050742149353e-02</internalNodes>
          <leafValues>
            5.6470590829849243e-01 -9.7777777910232544e-01</leafValues></_>
        <_>
          <internalNodes>
            0 -1 25 -4.9444776959717274e-03</internalNodes>
          <leafValues>
            6.1224412918090820e-01 -4.7740486264228821e-01</leafValues></_>
        <_>
          <internalNodes>
            0 -1 21 -1.5851874195504934e-05</internalNodes>
          <leafValues>
            -7.3869746923446655e-01 4.4685402512550354e-01</leafValues></_>
        <_>
          <internalNodes>
            0 -1 15 -4.7094017267227173e-02</internalNodes>
          <leafValues>
            6.8591535091400146e-01 -4.6940645575523376e-01</leafValues></_></weakClassifiers></_>
    <!-- stage 5 -->
    <_>
      <maxWeakCount>5</maxWeakCount>
      <stageThreshold>-7.1687769889831543e-01</stageThreshold>
      <weakClassifiers>
        <_>
          <internalNodes>
            0 -1 16 5.0980335799977183e-05</internalNodes>
          <leafValues>
            5.7746475934982300e-01 -8.4466022253036499e-01</leafValues></_>
        <_>
          <internalNodes>
            0 -1 17 -8.4100349340587854e-05</internalNodes>
          <leafValues>
            -7.7427959442138672e-01 3.7992689013481140e-01</leafValues></_>
        <_>
          <internalNodes>
            0 -1 10 5.4591447114944458e-03</internalNodes>
          <leafValues>
            -4.0746659040451050e-01 7.5781232118606567e-01</leafValues></_>
        <_>
          <internalNodes>
            0 -1 1 -7.1313558146357536e-03</internalNodes>
          <leafValues>
            6.2906932830810547e-01 -4.8701989650726318e-01</leafValues></_>
        <_>
          <internalNodes>
            0 -1 19 -7.5240270234644413e-05</internalNodes>
          <leafValues>
            -7.4166560173034668e-01 4.3230289220809937e-01</leafValues></_></weakClassifiers></_>
    <!-- stage 6 -->
    <_>
      <maxWeakCount>6</maxWeakCount>
      <stageThreshold>-8.7509566545486450e-01</stageThreshold>
      <weakClassifiers>
        <_>
          <internalNodes>
            0 -1 18 -1.7465377823100425e-05</internalNodes>
          <leafValues>
            -6.5811967849731445e-01 5.7349896430969238e-01</leafValues></_>
        <_>
          <internalNodes>
            0 -1 13 -8.7291058152914047e-03</internalNodes>
          <leafValues>
            6.4393949508666992e-01 -4.1141322255134583e-01</leafValues></_>
        <_>
          <internalNodes>
            0 -1 14 -8.8698808103799820e-03</internalNodes>
          <leafValues>
            6.1746567487716675e-01 -4.7171142697334290e-01</leafValues></_>
        <_>
          <internalNodes>
            0 -1 9 2.1450869739055634e-02</internalNodes>
          <leafValues>
            -3.4145405888557434e-01 8.3388197422027588e-01</leafValues></_>
        <_>
          <internalNodes>
            0 -1 21 1.6991811207844876e-05</internalNodes>
          <leafValues>
            3.9008313417434692e-01 -8.8187956809997559e-01</leafValues></_>
        <_>
          <internalNodes>
            0 -1 27 -2.7833869680762291e-03</internalNodes>
          <leafValues>
            6.8934875726699829e-01 -4.3783316016197205e-01</leafValues></_></weakClassifiers></_></stages>
  <features>
    <_>
      <rects>
        <_>
          0 12 9 28 -1.</_>
        <_>
          3 12 3 28 3.</_></rects>
      <tilted>0</tilted></_>
    <_>
      <rects>
        <_>
          0 16 9 14 -1.</_>
        <_>
          3 16 3 14 3.</_></rects>
      <tilted>0</tilted></_>
    <_>
      <rects>
        <_>
          1 16 6 17 -1.</_>
        <_>
          3 16 2 17 3.</_></rects>
      <tilted>0</tilted></_>
    <_>
      <rects>
        <_>
          2 10 46 28 -1.</_>
        <_>
          25 10 23 28 2.</_></rects>
      <tilted>0</tilted></_>
    <_>
      <rects>
        <_>
          2 11 46 26 -1.</_>
        <_>
          25 11 23 26 2.</_></rects>
      <tilted>0</tilted></_>
    <_>
      <rects>
        <_>
          3 6 46 42 -1.</_>
        <_>
          3 27 46 21 2.</_></rects>
      <tilted>0</tilted></_>
    <_>
      <rects>
        <_>
          9 43 30 6 -1.</_>
        <_>
          9 45 30 2 3.</_></rects>
      <tilted>0</tilted></_>
    <_>
      <rects>
        <_>
          10 0 25 9 -1.</_>
        <_>
          10 3 25 3 3.</_></rects>
      <tilted>0</tilted></_>
    <_>
      <rects>
        <_>
          12 18 18 9 -1.</_>
        <_>
          21 18 9 9 2.</_></rects>
      <tilted>0</tilted></_>
    <_>
      <rects>
        <_>
          12 28 26 4 -1.</_>
        <_>
          25 28 13 4 2.</_></rects>
      <tilted>0</tilted></_>
    <_>
      <rects>
        <_>
          14 28 22 2 -1.</_>
        <_>
          25 28 11 2 2.</_></rects>
      <tilted>0</tilted></_>
    <_>
      <rects>
        <_>
          16 30 18 2 -1.</_>
        <_>
          22 30 6 2 3.</_></rects>
      <tilted>0</tilted></_>
    <_>
      <rects>
        <_>
          17 18 8 8 -1.</_>
        <_>
          21 18 4 8 2.</_></rects>
      <tilted>0</tilted></_>
    <_>
      <rects>
        <_>
          17 19 8 9 -1.</_>
        <_>
          21 19 4 9 2.</_></rects>
      <tilted>0</tilted></_>
    <_>
      <rects>
        <_>
          17 41 21 9 -1.</_>
        <_>
          17 44 21 3 3.</_></rects>
      <tilted>0</tilted></_>
    <_>
      <rects>
        <_>
          19 11 11 27 -1.</_>
        <_>
          19 20 11 9 3.</_></rects>
      <tilted>0</tilted></_>
    <_>
      <rects>
        <_>
          23 10 4 2 -1.</_>
        <_>
          23 11 4 1 2.</_></rects>
      <tilted>0</tilted></_>
    <_>
      <rects>
        <_>
          24 7 1 8 -1.</_>
        <_>
          24 11 1 4 2.</_></rects>
      <tilted>0</tilted></_>
    <_>
      <rects>
        <_>
          24 10 1 2 -1.</_>
        <_>
          24 11 1 1 2.</_></rects>
      <tilted>0</tilted></_>
    <_>
      <rects>
        <_>
          24 21 1 8 -1.</_>
        <_>
          24 25 1 4 2.</_></rects>
      <tilted>0</tilted></_>
    <_>
      <rects>
        <_>
          24 38 1 2 -1.</_>
        <_>
          24 39 1 1 2.</_></rects>
      <tilted>0</tilted></_>
    <_>
      <rects>
        <_>
          24 38 2 2 -1.</_>
        <_>
          24 38 1 1 2.</_>
        <_>
          25 39 1 1 2.</_></rects>
      <tilted>0</tilted></_>
    <_>
      <rects>
        <_>
          24 38 2 2 -1.</_>
        <_>
          24 39 2 1 2.</_></rects>
      <tilted>0</tilted></_>
    <_>
      <rects>
        <_>
          25 24 24 1 -1.</_>
        <_>
          33 24 8 1 3.</_></rects>
      <tilted>0</tilted></_>
    <_>
      <rects>
        <_>
          31 4 14 26 -1.</_>
        <_>
          31 17 14 13 2.</_></rects>
      <tilted>0</tilted></_>
    <_>
      <rects>
        <_>
          43 15 6 17 -1.</_>
        <_>
          45 15 2 17 3.</_></rects>
      <tilted>0</tilted></_>
    <_>
      <rects>
        <_>
          43 19 6 15 -1.</_>
        <_>
          45 19 2 15 3.</_></rects>
      <tilted>0</tilted></_>
    <_>
      <rects>
        <_>
          44 19 4 11 -1.</_>
        <_>
          46 19 2 11 2.</_></rects>
      <tilted>0</tilted></_></features></cascade>
</opencv_storage>
