<?xml version="1.0"?>
<opencv_storage>
<cascade>
  <stageType>BOOST</stageType>
  <featureType>HAAR</featureType>
  <height>50</height>
  <width>50</width>
  <stageParams>
    <boostType>GAB</boostType>
    <minHitRate>9.9500000476837158e-01</minHitRate>
    <maxFalseAlarm>5.0000000000000000e-01</maxFalseAlarm>
    <weightTrimRate>9.4999999999999996e-01</weightTrimRate>
    <maxDepth>1</maxDepth>
    <maxWeakCount>100</maxWeakCount></stageParams>
  <featureParams>
    <maxCatCount>0</maxCatCount>
    <featSize>1</featSize>
    <mode>BASIC</mode></featureParams>
  <stageNum>9</stageNum>
  <stages>
    <!-- stage 0 -->
    <_>
      <maxWeakCount>4</maxWeakCount>
      <stageThreshold>-3.5409244894981384e-01</stageThreshold>
      <weakClassifiers>
        <_>
          <internalNodes>
            0 -1 1 -7.6682926155626774e-03</internalNodes>
          <leafValues>
            8.8644963502883911e-01 -3.4383687376976013e-01</leafValues></_>
        <_>
          <internalNodes>
            0 -1 16 -7.7462694607675076e-03</internalNodes>
          <leafValues>
            8.8414651155471802e-01 -3.7909764051437378e-01</leafValues></_>
        <_>
          <internalNodes>
            0 -1 36 -3.7369679193943739e-03</internalNodes>
          <leafValues>
            9.0911257266998291e-01 -3.2079237699508667e-01</leafValues></_>
        <_>
          <internalNodes>
            0 -1 8 -3.7348254118114710e-03</internalNodes>
          <leafValues>
            6.8963444232940674e-01 -5.0593304634094238e-01</leafValues></_></weakClassifiers></_>
    <!-- stage 1 -->
    <_>
      <maxWeakCount>4</maxWeakCount>
      <stageThreshold>-1.1228424310684204e-01</stageThreshold>
      <weakClassifiers>
        <_>
          <internalNodes>
            0 -1 37 -4.5569920912384987e-03</internalNodes>
          <leafValues>
            8.4808146953582764e-01 -2.5200355052947998e-01</leafValues></_>
        <_>
          <internalNodes>
            0 -1 5 5.4677322506904602e-02</internalNodes>
          <leafValues>
            4.2482337355613708e-01 -9.2810922861099243e-01</leafValues></_>
        <_>
          <internalNodes>
            0 -1 20 9.2633105814456940e-03</internalNodes>
          <leafValues>
            -3.9246547222137451e-01 8.2003349065780640e-01</leafValues></_>
        <_>
          <internalNodes>
            0 -1 4 -5.2587322890758514e-02</internalNodes>
          <leafValues>
            -9.3088793754577637e-01 3.6020904779434204e-01</leafValues></_></weakClassifiers></_>
    <!-- stage 2 -->
    <_>
      <maxWeakCount>4</maxWeakCount>
      <stageThreshold>1.4858093857765198e-01</stageThreshold>
      <weakClassifiers>
        <_>
          <internalNodes>
            0 -1 28 7.0584792410954833e-05</internalNodes>
          <leafValues>
            6.3247865438461304e-01 -7.2727274894714355e-01</leafValues></_>
        <_>
          <internalNodes>
            0 -1 15 -4.3704821728169918e-03</internalNodes>
          <leafValues>
            8.7771010398864746e-01 -4.4890660047531128e-01</leafValues></_>
        <_>
          <internalNodes>
            0 -1 19 -5.5799698457121849e-03</internalNodes>
          <leafValues>
            8.3715051412582397e-01 -5.1460063457489014e-01</leafValues></_>
        <_>
          <internalNodes>
            0 -1 27 3.9949569327291101e-05</internalNodes>
          <leafValues>
            5.4241985082626343e-01 -8.4700715541839600e-01</leafValues></_></weakClassifiers></_>
    <!-- stage 3 -->
    <_>
      <maxWeakCount>4</maxWeakCount>
      <stageThreshold>-3.5392913222312927e-01</stageThreshold>
      <weakClassifiers>
        <_>
          <internalNodes>
            0 -1 24 -1.2755626812577248e-04</internalNodes>
          <leafValues>
            -7.4418604373931885e-01 7.6635515689849854e-01</leafValues></_>
        <_>
          <internalNodes>
            0 -1 10 -9.7495969384908676e-03</internalNodes>
          <leafValues>
            7.8342038393020630e-01 -4.7059780359268188e-01</leafValues></_>
        <_>
          <internalNodes>
            0 -1 25 -9.3397393357008696e-05</internalNodes>
          <leafValues>
            -8.2562816143035889e-01 4.6272927522659302e-01</leafValues></_>
        <_>
          <internalNodes>
            0 -1 32 2.1834897779626772e-05</internalNodes>
          <leafValues>
            5.4922771453857422e-01 -8.5589277744293213e-01</leafValues></_></weakClassifiers></_>
    <!-- stage 4 -->
    <_>
      <maxWeakCount>4</maxWeakCount>
      <stageThreshold>-6.1133062839508057e-01</stageThreshold>
      <weakClassifiers>
        <_>
          <internalNodes>
            0 -1 9 -8.7100490927696228e-03</internalNodes>
          <leafValues>
            8.4810125827789307e-01 -2.3943662643432617e-01</leafValues></_>
        <_>
          <internalNodes>
            0 -1 29 -6.0428541473811492e-05</internalNodes>
          <leafValues>
            -8.0606579780578613e-01 5.0118362903594971e-01</leafValues></_>
        <_>
          <internalNodes>
            0 -1 33 2.6200728025287390e-03</internalNodes>
          <leafValues>
            -4.4448468089103699e-01 8.0906438827514648e-01</leafValues></_>
        <_>
          <internalNodes>
            0 -1 3 -8.6634727194905281e-03</internalNodes>
          <leafValues>
            8.8179850578308105e-01 -4.2859295010566711e-01</leafValues></_></weakClassifiers></_>
    <!-- stage 5 -->
    <_>
      <maxWeakCount>4</maxWeakCount>
      <stageThreshold>6.7460171878337860e-02</stageThreshold>
      <weakClassifiers>
        <_>
          <internalNodes>
            0 -1 30 8.9062734332401305e-05</internalNodes>
          <leafValues>
            6.7123287916183472e-01 -5.8024692535400391e-01</leafValues></_>
        <_>
          <internalNodes>
            0 -1 18 -3.1662045512348413e-04</internalNodes>
          <leafValues>
            6.5525639057159424e-01 -5.5443680286407471e-01</leafValues></_>
        <_>
          <internalNodes>
            0 -1 7 4.1706018149852753e-02</internalNodes>
          <leafValues>
            -4.4870859384536743e-01 8.2508891820907593e-01</leafValues></_>
        <_>
          <internalNodes>
            0 -1 31 1.2570745639095549e-05</internalNodes>
          <leafValues>
            4.6250277757644653e-01 -8.1032049655914307e-01</leafValues></_></weakClassifiers></_>
    <!-- stage 6 -->
    <_>
      <maxWeakCount>4</maxWeakCount>
      <stageThreshold>-2.1245026960968971e-02</stageThreshold>
      <weakClassifiers>
        <_>
          <internalNodes>
            0 -1 22 4.2992396629415452e-05</internalNodes>
          <leafValues>
            5.8704453706741333e-01 -8.4905660152435303e-01</leafValues></_>
        <_>
          <internalNodes>
            0 -1 11 -3.6740142386406660e-03</internalNodes>
          <leafValues>
            6.5126740932464600e-01 -6.1203300952911377e-01</leafValues></_>
        <_>
          <internalNodes>
            0 -1 17 2.7424774598330259e-03</internalNodes>
          <leafValues>
            -3.6816534399986267e-01 8.7734520435333252e-01</leafValues></_>
        <_>
          <internalNodes>
            0 -1 26 -1.0061413922812790e-04</internalNodes>
          <leafValues>
            -6.3849437236785889e-01 5.4470956325531006e-01</leafValues></_></weakClassifiers></_>
    <!-- stage 7 -->
    <_>
      <maxWeakCount>4</maxWeakCount>
      <stageThreshold>-1.5972501039505005e-01</stageThreshold>
      <weakClassifiers>
        <_>
          <internalNodes>
            0 -1 6 3.0893430113792419e-02</internalNodes>
          <leafValues>
            5.5118107795715332e-01 -8.6956518888473511e-01</leafValues></_>
        <_>
          <internalNodes>
            0 -1 2 -2.9376777820289135e-03</internalNodes>
          <leafValues>
            7.8635215759277344e-01 -4.7491353750228882e-01</leafValues></_>
        <_>
          <internalNodes>
            0 -1 0 -1.0971652343869209e-02</internalNodes>
          <leafValues>
            -6.9032716751098633e-01 5.0880050659179688e-01</leafValues></_>
        <_>
          <internalNodes>
            0 -1 23 9.5752552151679993e-03</internalNodes>
          <leafValues>
            -4.7932335734367371e-01 6.7595326900482178e-01</leafValues></_></weakClassifiers></_>
    <!-- stage 8 -->
    <_>
      <maxWeakCount>6</maxWeakCount>
      <stageThreshold>-6.9592550396919250e-02</stageThreshold>
      <weakClassifiers>
        <_>
          <internalNodes>
            0 -1 21 -1.2555558932945132e-03</internalNodes>
          <leafValues>
            7.4712646007537842e-01 -2.3809523880481720e-01</leafValues></_>
        <_>
          <internalNodes>
            0 -1 13 5.9815179556608200e-03</internalNodes>
          <leafValues>
            -4.7352552413940430e-01 6.2902182340621948e-01</leafValues></_>
        <_>
          <internalNodes>
            0 -1 35 -9.1352351009845734e-03</internalNodes>
          <leafValues>
            7.7396988868713379e-01 -3.6254137754440308e-01</leafValues></_>
        <_>
          <internalNodes>
            0 -1 34 6.0884514823555946e-03</internalNodes>
          <leafValues>
            -4.1592562198638916e-01 8.7860560417175293e-01</leafValues></_>
        <_>
          <internalNodes>
            0 -1 14 1.9482120871543884e-02</internalNodes>
          <leafValues>
            -3.0652996897697449e-01 9.2801409959793091e-01</leafValues></_>
        <_>
          <internalNodes>
            0 -1 12 5.3349629044532776e-02</internalNodes>
          <leafValues>
            -3.6074388027191162e-01 8.8515055179595947e-01</leafValues></_></weakClassifiers></_></stages>
  <features>
    <_>
      <rects>
        <_>
          0 8 39 22 -1.</_>
        <_>
          13 8 13 22 3.</_></rects>
      <tilted>0</tilted></_>
    <_>
      <rects>
        <_>
          0 14 9 26 -1.</_>
        <_>
          3 14 3 26 3.</_></rects>
      <tilted>0</tilted></_>
    <_>
      <rects>
        <_>
          0 17 9 5 -1.</_>
        <_>
          3 17 3 5 3.</_></rects>
      <tilted>0</tilted></_>
    <_>
      <rects>
        <_>
          1 10 6 31 -1.</_>
        <_>
          3 10 2 31 3.</_></rects>
      <tilted>0</tilted></_>
    <_>
      <rects>
        <_>
          3 10 42 30 -1.</_>
        <_>
          24 10 21 30 2.</_></rects>
      <tilted>0</tilted></_>
    <_>
      <rects>
        <_>
          3 11 44 26 -1.</_>
        <_>
          25 11 22 26 2.</_></rects>
      <tilted>0</tilted></_>
    <_>
      <rects>
        <_>
          4 8 35 42 -1.</_>
        <_>
          4 29 35 21 2.</_></rects>
      <tilted>0</tilted></_>
    <_>
      <rects>
        <_>
          6 3 29 14 -1.</_>
        <_>
          6 10 29 7 2.</_></rects>
      <tilted>0</tilted></_>
    <_>
      <rects>
        <_>
          11 30 24 2 -1.</_>
        <_>
          19 30 8 2 3.</_></rects>
      <tilted>0</tilted></_>
    <_>
      <rects>
        <_>
          14 0 19 9 -1.</_>
        <_>
          14 3 19 3 3.</_></rects>
      <tilted>0</tilted></_>
    <_>
      <rects>
        <_>
          14 41 23 9 -1.</_>
        <_>
          14 44 23 3 3.</_></rects>
      <tilted>0</tilted></_>
    <_>
      <rects>
        <_>
          14 41 25 9 -1.</_>
        <_>
          14 44 25 3 3.</_></rects>
      <tilted>0</tilted></_>
    <_>
      <rects>
        <_>
          16 14 24 20 -1.</_>
        <_>
          16 14 12 10 2.</_>
        <_>
          28 24 12 10 2.</_></rects>
      <tilted>0</tilted></_>
    <_>
      <rects>
        <_>
          16 20 8 30 -1.</_>
        <_>
          16 20 4 15 2.</_>
        <_>
          20 35 4 15 2.</_></rects>
      <tilted>0</tilted></_>
    <_>
      <rects>
        <_>
          17 3 3 30 -1.</_>
        <_>
          17 18 3 15 2.</_></rects>
      <tilted>0</tilted></_>
    <_>
      <rects>
        <_>
          17 17 6 8 -1.</_>
        <_>
          20 17 3 8 2.</_></rects>
      <tilted>0</tilted></_>
    <_>
      <rects>
        <_>
          17 17 8 11 -1.</_>
        <_>
          21 17 4 11 2.</_></rects>
      <tilted>0</tilted></_>
    <_>
      <rects>
        <_>
          17 29 18 1 -1.</_>
        <_>
          26 29 9 1 2.</_></rects>
      <tilted>0</tilted></_>
    <_>
      <rects>
        <_>
          18 19 15 1 -1.</_>
        <_>
          23 19 5 1 3.</_></rects>
      <tilted>0</tilted></_>
    <_>
      <rects>
        <_>
          19 0 10 9 -1.</_>
        <_>
          19 3 10 3 3.</_></rects>
      <tilted>0</tilted></_>
    <_>
      <rects>
        <_>
          19 15 24 6 -1.</_>
        <_>
          19 15 12 3 2.</_>
        <_>
          31 18 12 3 2.</_></rects>
      <tilted>0</tilted></_>
    <_>
      <rects>
        <_>
          22 1 8 6 -1.</_>
        <_>
          22 3 8 2 3.</_></rects>
      <tilted>0</tilted></_>
    <_>
      <rects>
        <_>
          23 10 3 2 -1.</_>
        <_>
          23 11 3 1 2.</_></rects>
      <tilted>0</tilted></_>
    <_>
      <rects>
        <_>
          23 16 16 14 -1.</_>
        <_>
          23 23 16 7 2.</_></rects>
      <tilted>0</tilted></_>
    <_>
      <rects>
        <_>
          23 36 4 4 -1.</_>
        <_>
          23 38 4 2 2.</_></rects>
      <tilted>0</tilted></_>
    <_>
      <rects>
        <_>
          23 38 4 4 -1.</_>
        <_>
          23 40 4 2 2.</_></rects>
      <tilted>0</tilted></_>
    <_>
      <rects>
        <_>
          24 10 6 3 -1.</_>
        <_>
          27 10 3 3 2.</_></rects>
      <tilted>0</tilted></_>
    <_>
      <rects>
        <_>
          24 11 6 1 -1.</_>
        <_>
          27 11 3 1 2.</_></rects>
      <tilted>0</tilted></_>
    <_>
      <rects>
        <_>
          24 36 2 4 -1.</_>
        <_>
          24 38 2 2 2.</_></rects>
      <tilted>0</tilted></_>
    <_>
      <rects>
        <_>
          25 34 1 6 -1.</_>
        <_>
          25 37 1 3 2.</_></rects>
      <tilted>0</tilted></_>
    <_>
      <rects>
        <_>
          26 35 3 6 -1.</_>
        <_>
          26 38 3 3 2.</_></rects>
      <tilted>0</tilted></_>
    <_>
      <rects>
        <_>
          27 11 1 2 -1.</_>
        <_>
          27 12 1 1 2.</_></rects>
      <tilted>0</tilted></_>
    <_>
      <rects>
        <_>
          28 39 1 2 -1.</_>
        <_>
          28 40 1 1 2.</_></rects>
      <tilted>0</tilted></_>
    <_>
      <rects>
        <_>
          29 17 4 13 -1.</_>
        <_>
          31 17 2 13 2.</_></rects>
      <tilted>0</tilted></_>
    <_>
      <rects>
        <_>
          29 20 6 11 -1.</_>
        <_>
          32 20 3 11 2.</_></rects>
      <tilted>0</tilted></_>
    <_>
      <rects>
        <_>
          42 13 6 16 -1.</_>
        <_>
          45 13 3 16 2.</_></rects>
      <tilted>0</tilted></_>
    <_>
      <rects>
        <_>
          42 21 6 7 -1.</_>
        <_>
          45 21 3 7 2.</_></rects>
      <tilted>0</tilted></_>
    <_>
      <rects>
        <_>
          43 11 6 24 -1.</_>
        <_>
          45 11 2 24 3.</_></rects>
      <tilted>0</tilted></_></features></cascade>
</opencv_storage>
